Language model created by QuickLM on Wed May  1 10:51:37 EDT 2013
Copyright (c) 1996-2010 Carnegie Mellon University and Alexander I. Rudnicky

The model is in standard ARPA format, designed by Doug Paul while he was at MITRE.

The code that was used to produce this language model is available in Open Source.
Please visit http://www.speech.cs.cmu.edu/tools/ for more information

The (fixed) discount mass is 0.5. The backoffs are computed using the ratio method.
This model based on a corpus of 18 sentences and 20 words

\data\
ngram 1=20
ngram 2=36
ngram 3=18

\1-grams:
-0.7782 </s> -0.3010
-0.7782 <s> -0.2218
-2.0334 cancel -0.2218
-2.0334 cos -0.2218
-2.0334 eight -0.2218
-2.0334 five -0.2218
-2.0334 four -0.2218
-2.0334 next -0.2218
-2.0334 nine -0.2218
-2.0334 one -0.2218
-2.0334 play -0.2218
-2.0334 ramp -0.2218
-2.0334 rectangular -0.2218
-2.0334 seven -0.2218
-2.0334 sine -0.2218
-2.0334 six -0.2218
-2.0334 three -0.2218
-2.0334 triangular -0.2218
-2.0334 two -0.2218
-2.0334 zero -0.2218

\2-grams:
-1.5563 <s> cancel 0.0000
-1.5563 <s> cos 0.0000
-1.5563 <s> eight 0.0000
-1.5563 <s> five 0.0000
-1.5563 <s> four 0.0000
-1.5563 <s> next 0.0000
-1.5563 <s> nine 0.0000
-1.5563 <s> one 0.0000
-1.5563 <s> play 0.0000
-1.5563 <s> ramp 0.0000
-1.5563 <s> rectangular 0.0000
-1.5563 <s> seven 0.0000
-1.5563 <s> sine 0.0000
-1.5563 <s> six 0.0000
-1.5563 <s> three 0.0000
-1.5563 <s> triangular 0.0000
-1.5563 <s> two 0.0000
-1.5563 <s> zero 0.0000
-0.3010 cancel </s> -0.3010
-0.3010 cos </s> -0.3010
-0.3010 eight </s> -0.3010
-0.3010 five </s> -0.3010
-0.3010 four </s> -0.3010
-0.3010 next </s> -0.3010
-0.3010 nine </s> -0.3010
-0.3010 one </s> -0.3010
-0.3010 play </s> -0.3010
-0.3010 ramp </s> -0.3010
-0.3010 rectangular </s> -0.3010
-0.3010 seven </s> -0.3010
-0.3010 sine </s> -0.3010
-0.3010 six </s> -0.3010
-0.3010 three </s> -0.3010
-0.3010 triangular </s> -0.3010
-0.3010 two </s> -0.3010
-0.3010 zero </s> -0.3010

\3-grams:
-0.3010 <s> cancel </s>
-0.3010 <s> cos </s>
-0.3010 <s> eight </s>
-0.3010 <s> five </s>
-0.3010 <s> four </s>
-0.3010 <s> next </s>
-0.3010 <s> nine </s>
-0.3010 <s> one </s>
-0.3010 <s> play </s>
-0.3010 <s> ramp </s>
-0.3010 <s> rectangular </s>
-0.3010 <s> seven </s>
-0.3010 <s> sine </s>
-0.3010 <s> six </s>
-0.3010 <s> three </s>
-0.3010 <s> triangular </s>
-0.3010 <s> two </s>
-0.3010 <s> zero </s>

\end\
